
\data\
ngram 1=52
ngram 2=1877

\1-grams:
-1.935758	</s>
-99	<s>	-1.795539
-1.764062	AA	-2.195569
-1.408984	AE	-2.835798
-1.326395	AH	-0.9678433
-1.796768	AO	-1.879456
-2.219983	AW	-1.275093
-1.291302	AX	-1.902086
-1.699984	AXR	-1.435007
-1.716151	AY	-1.306853
-1.774628	B	-2.373052
-3.593641	BD	-0.6508719
-2.248236	CH	-1.302826
-1.841132	D	-1.745852
-1.447938	DD	-2.230057
-1.441315	DH	-2.06571
-2.133188	DX	-3.311992
-1.541353	EH	-2.796225
-2.256707	ER	-0.7499294
-1.81737	EY	-0.9330531
-1.731119	F	-1.80019
-2.100263	G	-2.156022
-3.359646	GD	-0.7722276
-1.50166	HH	-2.398181
-1.409033	IH	-2.903502
-1.792887	IX	-2.537024
-1.481786	IY	-1.513618
-2.352092	JH	-1.03116
-1.724668	K	-2.061239
-2.216805	KD	-1.300109
-1.442221	L	-1.378882
-1.512967	M	-1.475668
-1.166351	N	-1.910219
-1.984707	NG	-1.494661
-1.936506	OW	-1.028391
-2.998269	OY	-0.8903989
-1.799711	P	-2.153008
-2.557004	PD	-1.14459
-1.37988	R	-1.199941
-1.35211	S	-1.937705
-2.126328	SH	-1.440327
-1.546114	T	-2.181037
-1.475787	TD	-2.202209
-2.35878	TH	-1.433154
-2.783596	TS	-1.011998
-2.264101	UH	-2.479444
-1.931091	UW	-1.074395
-1.725113	V	-1.70274
-1.624827	W	-3.066024
-2.139673	Y	-2.705249
-1.595695	Z	-1.832005
-3.247757	ZH	-2.301152

\2-grams:
-1.870795	<s> AA
-1.106712	<s> AE
-2.43162	<s> AH
-2.213564	<s> AO
-3.124341	<s> AW
-1.613413	<s> AX
-3.492318	<s> AXR
-1.123102	<s> AY
-1.285942	<s> B
-2.378375	<s> CH
-1.94209	<s> D
-0.6469098	<s> DH
-2.301986	<s> EH
-2.991716	<s> ER
-3.492318	<s> EY
-1.790462	<s> F
-2.153198	<s> G
-0.863929	<s> HH
-1.2788	<s> IH
-2.191288	<s> IX
-2.702267	<s> IY
-2.13059	<s> JH
-1.685009	<s> K
-1.994007	<s> L
-1.626031	<s> M
-1.584728	<s> N
-2.071812	<s> OW
-4.270469	<s> OY
-1.714167	<s> P
-2.253436	<s> R
-1.307154	<s> S
-1.478078	<s> SH
-1.886654	<s> T
-2.589228	<s> TH
-2.617257	<s> V
-1.502572	<s> W
-1.668409	<s> Y
-3.124341	<s> Z
-2.566822	AA </s>
-3.596786	AA AE
-3.663732	AA AH
-1.744654	AA B
-3.362702	AA BD
-2.544256	AA CH
-2.351979	AA D
-2.324612	AA DD
-1.618409	AA DH
-1.696809	AA DX
-4.140853	AA EY
-2.429046	AA F
-2.62897	AA G
-3.265792	AA GD
-3.32794	AA HH
-4.441884	AA IH
-3.964762	AA IX
-2.555393	AA JH
-1.850819	AA K
-1.996279	AA KD
-1.287764	AA L
-1.495923	AA M
-0.7594677	AA N
-2.808415	AA NG
-4.441884	AA OW
-1.842	AA P
-1.90659	AA PD
-0.6783807	AA R
-1.710295	AA S
-2.8621	AA SH
-2.331294	AA T
-0.8155432	AA TD
-3.487641	AA TH
-2.808415	AA TS
-2.517604	AA V
-3.839823	AA W
-3.663732	AA Y
-0.6835017	AA Z
-4.796602	AE AH
-2.230754	AE B
-2.872323	AE BD
-2.410996	AE CH
-1.779569	AE D
-1.145518	AE DD
-2.546182	AE DH
-1.923281	AE DX
-3.143389	AE ER
-1.581493	AE F
-2.274158	AE G
-2.587087	AE GD
-4.495572	AE HH
-1.968587	AE JH
-2.060206	AE K
-1.761974	AE KD
-1.458544	AE L
-1.642178	AE M
-0.4018353	AE N
-1.981024	AE NG
-1.838995	AE P
-2.102875	AE PD
-1.921541	AE R
-1.367011	AE S
-2.482735	AE SH
-2.739697	AE T
-0.8388033	AE TD
-2.732144	AE TH
-3.183818	AE TS
-4.796602	AE UW
-1.308616	AE V
-1.153446	AE Z
-4.018451	AE ZH
-2.944746	AH </s>
-2.552909	AH AA
-2.452734	AH AE
-2.169975	AH AH
-2.675125	AH AO
-3.207147	AH AW
-2.462605	AH AX
-3.499034	AH AXR
-2.493639	AH AY
-1.595718	AH B
-3.093915	AH BD
-1.656269	AH CH
-1.721486	AH D
-2.896974	AH DD
-1.533675	AH DH
-2.502668	AH DX
-2.215544	AH EH
-2.803698	AH ER
-3.255996	AH EY
-1.501211	AH F
-1.711042	AH G
-3.387883	AH GD
-1.747947	AH HH
-2.540788	AH IH
-2.571749	AH IX
-2.837852	AH IY
-2.020708	AH JH
-1.259213	AH K
-2.280454	AH KD
-1.39523	AH L
-1.122077	AH M
-1.012249	AH N
-1.892026	AH NG
-2.301753	AH OW
-3.675125	AH OY
-1.320536	AH P
-1.793954	AH PD
-1.499215	AH R
-1.109056	AH S
-2.287068	AH SH
-1.665462	AH T
-1.183676	AH TD
-2.03726	AH TH
-3.189049	AH TS
-4.402124	AH UW
-0.7453231	AH V
-1.688353	AH W
-2.387883	AH Y
-2.027987	AH Z
-3.263095	AO </s>
-3.807163	AO AA
-2.807163	AO AE
-3.29528	AO AH
-3.506133	AO AO
-2.55189	AO AX
-3.0668	AO B
-3.631072	AO D
-2.807163	AO DD
-2.093252	AO DH
-1.485979	AO DX
-3.45498	AO EH
-1.438411	AO F
-3.233132	AO G
-2.528409	AO GD
-2.3639	AO HH
-2.746465	AO IH
-3.178774	AO IX
-4.409223	AO IY
-4.108193	AO JH
-2.36783	AO K
-1.876468	AO KD
-0.7816522	AO L
-2.946825	AO M
-1.904073	AO N
-1.333311	AO NG
-4.409223	AO OW
-4.108193	AO P
-0.2283231	AO R
-1.777779	AO S
-2.865155	AO SH
-2.75601	AO T
-1.407489	AO TD
-2.616831	AO TH
-2.511596	AO TS
-3.263095	AO W
-3.631072	AO Y
-2.576714	AO Z
-2.324372	AW </s>
-2.36388	AW AA
-2.089503	AW AE
-2.644707	AW AH
-3.032887	AW AO
-2.443062	AW AX
-1.228975	AW AXR
-2.129797	AW AY
-2.262854	AW B
-2.731857	AW CH
-1.907948	AW D
-1.629195	AW DD
-1.744092	AW DH
-1.957746	AW DX
-1.546221	AW EH
-3.208978	AW ER
-3.6861	AW EY
-2.407346	AW F
-2.27956	AW G
-1.76182	AW HH
-2.174217	AW IH
-2.841002	AW IX
-3.28816	AW JH
-1.98713	AW K
-1.98713	AW L
-1.991495	AW M
-0.489233	AW N
-3.38507	AW OW
-2.58919	AW P
-2.187789	AW R
-1.139557	AW S
-2.216278	AW SH
-1.907948	AW T
-0.579399	AW TD
-1.904344	AW TH
-2.315032	AW TS
-2.756681	AW V
-2.142032	AW W
-2.524732	AW Y
-1.681778	AW Z
-2.774416	AX </s>
-3.050973	AX AA
-2.450402	AX AE
-2.955254	AX AH
-2.715638	AX AO
-4.613266	AX AW
-2.12542	AX AX
-4.011206	AX AXR
-3.571873	AX AY
-1.31191	AX B
-3.081787	AX BD
-2.807086	AX CH
-1.669771	AX D
-1.371968	AX DD
-1.548246	AX DH
-1.932477	AX DX
-2.678767	AX EH
-4.914296	AX ER
-1.55617	AX F
-1.514103	AX G
-1.536261	AX HH
-2.777575	AX IH
-2.644783	AX IX
-2.820874	AX IY
-1.910835	AX JH
-1.457474	AX K
-3.027805	AX KD
-0.8130642	AX L
-1.306948	AX M
-0.6313564	AX N
-2.936572	AX OW
-4.613266	AX OY
-1.355947	AX P
-3.382817	AX PD
-1.958127	AX R
-1.014968	AX S
-2.297295	AX SH
-1.700512	AX T
-1.793064	AX TD
-2.3971	AX TH
-2.774416	AX TS
-2.090821	AX V
-1.784606	AX W
-2.246843	AX Y
-1.763232	AX Z
-1.362636	AXR </s>
-2.25311	AXR AA
-1.295913	AXR AE
-1.629746	AXR AH
-2.09099	AXR AO
-2.241146	AXR AW
-1.420673	AXR AX
-2.660866	AXR AXR
-1.705246	AXR AY
-1.625722	AXR B
-4.505963	AXR BD
-2.542176	AXR CH
-1.759329	AXR D
-1.238088	AXR DD
-1.29351	AXR DH
-2.312839	AXR DX
-1.937762	AXR EH
-3.602874	AXR ER
-2.082718	AXR EY
-1.444134	AXR F
-1.789126	AXR G
-1.183331	AXR HH
-1.595339	AXR IH
-1.852751	AXR IX
-1.617223	AXR IY
-2.39202	AXR JH
-1.711475	AXR K
-1.675375	AXR L
-1.129934	AXR M
-1.756227	AXR N
-2.243512	AXR OW
-4.204934	AXR OY
-1.575524	AXR P
-1.953295	AXR R
-1.12161	AXR S
-2.138608	AXR SH
-1.328716	AXR T
-2.505964	AXR TD
-2.514737	AXR TH
-3.0746	AXR TS
-2.262925	AXR V
-1.448297	AXR W
-2.025957	AXR Y
-1.119465	AXR Z
-2.429134	AY </s>
-2.817734	AY AA
-1.538009	AY AE
-1.858388	AY AH
-2.489832	AY AO
-3.410651	AY AW
-1.482938	AY AX
-1.517629	AY AXR
-2.581347	AY AY
-1.772161	AY B
-2.99847	AY BD
-2.444509	AY CH
-1.548818	AY D
-1.220553	AY DD
-1.543871	AY DH
-1.753435	AY DX
-2.334496	AY EH
-3.211078	AY ER
-3.285712	AY EY
-1.425	AY F
-2.069876	AY G
-1.261432	AY HH
-2.429134	AY IH
-1.878109	AY IX
-3.23456	AY IY
-2.024449	AY JH
-1.454002	AY K
-1.774665	AY KD
-1.280317	AY L
-1.177866	AY M
-1.083974	AY N
-2.353112	AY OW
-1.728656	AY P
-2.984682	AY PD
-1.75026	AY R
-1.295318	AY S
-1.864519	AY SH
-1.663109	AY T
-1.157596	AY TD
-2.249283	AY TH
-2.560413	AY TS
-1.421275	AY V
-1.337544	AY W
-2.512108	AY Y
-1.345881	AY Z
-4.130205	B </s>
-1.472194	B AA
-1.365655	B AE
-0.8364007	B AH
-2.011279	B AO
-1.573903	B AW
-0.9415578	B AX
-1.596179	B AXR
-1.107571	B AY
-3.255144	B D
-1.285107	B EH
-1.786796	B ER
-1.864209	B EY
-4.130205	B F
-3.476993	B HH
-1.629146	B IH
-1.004724	B IX
-0.9064496	B IY
-2.397811	B JH
-1.404702	B L
-2.899756	B M
-1.747288	B OW
-2.422635	B OY
-1.075401	B R
-2.34133	B S
-3.954114	B T
-2.37433	B UH
-2.778023	B UW
-3.653084	B V
-3.829175	B W
-1.637445	B Y
-2.079052	B Z
-1.33646	BD </s>
-2.03543	BD AA
-1.106011	BD AE
-2.03543	BD AH
-2.33646	BD AW
-1.558308	BD AX
-2.03543	BD B
-0.7398626	BD D
-0.7624285	BD DD
-1.523546	BD DH
-2.33646	BD EH
-2.33646	BD F
-1.33646	BD HH
-1.7344	BD IH
-2.33646	BD IX
-1.792392	BD K
-1.792392	BD L
-2.33646	BD M
-1.93852	BD N
-2.33646	BD P
-2.33646	BD R
-1.93852	BD S
-2.160368	BD SH
-0.7236759	BD T
-1.7344	BD W
-2.03543	BD Y
-2.024543	CH </s>
-1.595429	CH AA
-1.313619	CH AE
-1.462112	CH AH
-2.286943	CH AO
-3.055951	CH AW
-0.7881932	CH AX
-1.285099	CH AXR
-1.218679	CH AY
-1.890856	CH B
-2.959041	CH CH
-2.095719	CH D
-1.337865	CH DH
-1.640978	CH EH
-2.636822	CH ER
-1.351586	CH EY
-1.925618	CH F
-2.061414	CH G
-1.215532	CH HH
-1.304865	CH IH
-1.771521	CH IX
-1.845098	CH IY
-2.544068	CH JH
-1.720995	CH K
-1.78295	CH L
-1.587973	CH M
-2.414973	CH N
-2.203166	CH OW
-2.356982	CH OY
-1.869136	CH P
-2.08981	CH R
-1.622582	CH S
-1.872682	CH SH
-1.765917	CH T
-1.269732	CH TD
-2.527678	CH TH
-3.959041	CH UH
-1.78878	CH UW
-3.055951	CH V
-1.270622	CH W
-1.845098	CH Y
-2.657412	D </s>
-1.834783	D AA
-1.72153	D AE
-1.275077	D AH
-1.425962	D AO
-1.419514	D AW
-1.048593	D AX
-1.256756	D AXR
-1.649815	D AY
-2.71177	D B
-2.984771	D CH
-3.666012	D D
-2.331558	D DH
-1.46135	D EH
-1.948342	D ER
-1.255404	D EY
-2.315764	D F
-3.666012	D G
-2.191796	D HH
-0.9970675	D IH
-0.890329	D IX
-1.534394	D IY
-4.063952	D JH
-3.10971	D K
-1.9071	D L
-1.922503	D M
-2.066129	D N
-1.914733	D OW
-4.063952	D OY
-3.285801	D P
-1.180007	D R
-2.129454	D S
-2.545438	D SH
-2.538908	D T
-3.519884	D TH
-2.472888	D UH
-1.283275	D UW
-1.914733	D V
-2.225103	D W
-2.846468	D Y
-1.064604	D Z
-1.488435	DD </s>
-2.082854	DD AA
-1.208712	DD AE
-1.569912	DD AH
-1.898576	DD AO
-2.316806	DD AW
-1.441954	DD AX
-3.134465	DD AXR
-1.846025	DD AY
-1.313202	DD B
-2.620994	DD CH
-1.669224	DD D
-0.9186769	DD DH
-2.082854	DD EH
-3.359775	DD ER
-3.058745	DD EY
-1.440488	DD F
-1.815707	DD G
-0.9599627	DD HH
-1.402263	DD IH
-2.129326	DD IX
-2.524719	DD IY
-2.359775	DD JH
-1.511216	DD K
-1.748689	DD L
-1.410775	DD M
-1.373899	DD N
-2.324745	DD OW
-3.912617	DD OY
-1.636812	DD P
-1.781824	DD R
-1.251887	DD S
-1.863953	DD SH
-1.157614	DD T
-2.124246	DD TH
-2.226236	DD V
-1.358387	DD W
-1.920126	DD Y
-3.527266	DD Z
-3.3664	DH </s>
-3.56022	DH AA
-0.9444677	DH AE
-0.2783921	DH AH
-2.585364	DH AO
-2.339459	DH AW
-2.06019	DH AX
-1.178654	DH AXR
-2.509068	DH AY
-3.083099	DH B
-4.28722	DH CH
-2.938266	DH D
-3.259191	DH DD
-1.778465	DH DH
-1.012677	DH EH
-2.743151	DH ER
-1.336368	DH EY
-2.850527	DH F
-2.497169	DH G
-1.876723	DH HH
-1.359165	DH IH
-3.083099	DH IX
-1.901018	DH IY
-3.008466	DH JH
-2.979011	DH K
-2.861251	DH L
-2.281467	DH M
-3.220273	DH N
-2.026353	DH OW
-4.162281	DH OY
-2.722948	DH P
-3.040065	DH R
-2.412158	DH S
-3.861251	DH SH
-2.907008	DH T
-3.349367	DH TH
-3.722948	DH V
-2.883527	DH W
-2.591154	DH Y
-2.615121	DH Z
-0.4147896	DX AX
-0.6676607	DX AXR
-0.8956535	DX IX
-0.566631	DX IY
-2.841875	DX OW
-2.68657	EH B
-4.187173	EH BD
-2.378737	EH CH
-1.997776	EH D
-1.10367	EH DD
-2.012048	EH DH
-1.688403	EH DX
-3.664294	EH ER
-1.950804	EH F
-2.53396	EH G
-2.291382	EH GD
-2.540442	EH HH
-2.84475	EH JH
-1.554716	EH K
-1.698622	EH KD
-0.9634173	EH L
-1.241868	EH M
-0.6248403	EH N
-2.327834	EH NG
-2.212507	EH P
-2.14578	EH PD
-0.7262749	EH R
-1.110168	EH S
-2.190078	EH SH
-2.777803	EH T
-1.482736	EH TD
-2.129	EH TH
-3.073229	EH TS
-1.299743	EH V
-2.050452	EH Z
-2.137955	EH ZH
-2.042367	ER </s>
-3.047761	ER AA
-1.83358	ER AE
-1.917428	ER AH
-2.996609	ER AO
-3.950851	ER AW
-2.07579	ER AX
-3.348791	ER AXR
-2.38265	ER AY
-2.006369	ER B
-2.432338	ER BD
-1.249283	ER CH
-1.390945	ER D
-1.046677	ER DD
-1.594826	ER DH
-1.722965	ER DX
-2.87167	ER EH
-2.608429	ER ER
-3.047761	ER EY
-1.942251	ER F
-2.836908	ER G
-1.973128	ER HH
-2.001462	ER IH
-2.503693	ER IX
-2.070038	ER IY
-2.57064	ER JH
-1.728135	ER K
-1.789483	ER KD
-1.171255	ER L
-1.608429	ER M
-0.793697	ER N
-2.746732	ER OW
-1.717855	ER P
-3.348791	ER PD
-2.179999	ER R
-0.8644916	ER S
-2.535878	ER SH
-1.434978	ER T
-2.037038	ER TD
-1.539232	ER TH
-2.804724	ER TS
-1.266006	ER V
-2.187423	ER W
-2.406783	ER Y
-1.604499	ER Z
-1.591016	ER ZH
-1.965583	EY </s>
-2.268255	EY AA
-1.891899	EY AE
-2.268255	EY AH
-2.429788	EY AO
-3.06661	EY AW
-2.295408	EY AX
-3.087799	EY AXR
-2.640641	EY AY
-1.410649	EY B
-2.911708	EY BD
-2.562754	EY CH
-1.865083	EY D
-1.190997	EY DD
-1.874281	EY DH
-1.344682	EY DX
-2.562754	EY EH
-4.087799	EY ER
-3.911708	EY EY
-1.921962	EY F
-2.411106	EY G
-4.087799	EY GD
-1.558882	EY HH
-2.176641	EY IH
-1.982289	EY IX
-2.926431	EY IY
-1.990889	EY JH
-1.355808	EY K
-1.217688	EY KD
-1.4589	EY L
-0.9826297	EY M
-1.07644	EY N
-3.008618	EY OW
-2.008618	EY P
-2.143317	EY PD
-2.274886	EY R
-1.141101	EY S
-1.354201	EY SH
-1.75034	EY T
-1.118383	EY TD
-2.328131	EY TH
-2.339611	EY TS
-3.434587	EY UW
-1.241153	EY V
-1.546844	EY W
-2.543731	EY Y
-1.490653	EY Z
-2.316947	EY ZH
-1.836353	F </s>
-1.305462	F AA
-1.43345	F AE
-1.835356	F AH
-0.6457961	F AO
-1.656617	F AW
-1.151178	F AX
-1.1047	F AXR
-1.302824	F AY
-2.234293	F B
-3.571753	F CH
-2.642334	F D
-1.847477	F DH
-1.275362	F EH
-1.650717	F ER
-1.693087	F EY
-2.344509	F F
-3.076902	F G
-1.813977	F HH
-1.33971	F IH
-2.244394	F IX
-1.758839	F IY
-3.113115	F JH
-2.599781	F K
-1.536323	F L
-2.668663	F M
-2.655298	F N
-2.374472	F OW
-3.775872	F OY
-2.750567	F P
-1.411885	F R
-2.058202	F S
-2.414145	F SH
-1.212391	F T
-1.688801	F TD
-3.173812	F TH
-3.152623	F TS
-1.884893	F UH
-2.50636	F UW
-3.13242	F V
-2.041873	F W
-1.605611	F Y
-1.157608	G AA
-1.390853	G AE
-1.708081	G AH
-1.910121	G AO
-2.658863	G AW
-1.575821	G AX
-1.458638	G AXR
-2.299841	G AY
-3.407051	G D
-0.946153	G EH
-1.927044	G ER
-1.182777	G EY
-1.172534	G IH
-2.658863	G IX
-2.875572	G IY
-2.643623	G JH
-1.496426	G L
-2.901901	G M
-1.649655	G N
-0.9661418	G OW
-0.614239	G R
-3.804991	G S
-4.106021	G SH
-1.225207	G UH
-2.503961	G UW
-2.192207	G W
-2.156631	G Y
-1.3976	G Z
-1.20116	GD </s>
-2.018819	GD AA
-1.108042	GD AE
-1.012659	GD AH
-2.562887	GD AO
-2.562887	GD AW
-1.448944	GD AX
-1.659797	GD AY
-1.295716	GD B
-2.863917	GD CH
-1.071526	GD D
-0.8510802	GD DD
-1.220465	GD DH
-2.562887	GD EH
-2.562887	GD EY
-1.960827	GD F
-2.085766	GD G
-1.20116	GD HH
-1.659797	GD IH
-2.562887	GD IY
-2.562887	GD JH
-2.261857	GD K
-1.541698	GD L
-2.085766	GD M
-2.562887	GD P
-2.164947	GD R
-1.386796	GD S
-2.085766	GD SH
-1.687826	GD T
-1.585164	GD W
-1.332438	GD Y
-3.925845	HH </s>
-1.899857	HH AA
-0.7394064	HH AE
-1.831257	HH AH
-1.969196	HH AO
-1.544128	HH AW
-4.402966	HH AX
-1.007552	HH AXR
-2.036543	HH AY
-4.101936	HH B
-4.402966	HH D
-3.557868	HH DH
-1.604315	HH EH
-2.022755	HH ER
-2.277485	HH EY
-3.925845	HH F
-4.101936	HH G
-3.425242	HH HH
-0.6831791	HH IH
-1.813575	HH IX
-0.8155918	HH IY
-3.800906	HH K
-4.402966	HH L
-4.402966	HH M
-4.402966	HH N
-1.680744	HH OW
-3.925845	HH OY
-4.101936	HH R
-3.800906	HH S
-4.402966	HH SH
-3.800906	HH T
-2.817505	HH UH
-1.350657	HH UW
-0.8074147	HH W
-2.533734	HH Y
-2.566091	IH B
-1.345675	IH CH
-2.237831	IH D
-1.897267	IH DD
-1.137861	IH DH
-1.457088	IH DX
-3.381566	IH ER
-1.577742	IH F
-2.410933	IH G
-2.675966	IH GD
-3.842297	IH HH
-2.659819	IH JH
-1.930252	IH K
-2.322323	IH KD
-1.422341	IH L
-1.132556	IH M
-0.6573219	IH N
-1.170405	IH NG
-2.489044	IH P
-2.309401	IH PD
-1.360377	IH R
-1.179434	IH S
-1.735087	IH SH
-2.617563	IH T
-1.097049	IH TD
-2.910049	IH TH
-2.247536	IH TS
-1.759113	IH V
-3.59242	IH W
-0.8866628	IH Z
-2.805314	IH ZH
-2.759735	IX AA
-3.157675	IX B
-2.907798	IX CH
-2.881469	IX D
-1.530423	IX DD
-2.458705	IX DH
-2.713978	IX DX
-1.387642	IX F
-1.580439	IX G
-2.114094	IX HH
-1.849466	IX JH
-1.192839	IX K
-1.905092	IX KD
-1.479967	IX L
-1.10417	IX M
-1.124698	IX N
-0.443718	IX NG
-1.514222	IX P
-2.680554	IX PD
-3.05122	IX R
-1.198634	IX S
-1.629044	IX SH
-1.463557	IX T
-2.593404	IX TD
-1.588171	IX TH
-2.504462	IX TS
-1.710517	IX V
-2.51532	IX W
-1.423053	IX Z
-1.519828	IY </s>
-2.236809	IY AA
-1.40505	IY AE
-1.65428	IY AH
-2.192469	IY AO
-2.938618	IY AW
-1.377009	IY AX
-2.473528	IY AXR
-2.140749	IY AY
-1.499415	IY B
-1.825223	IY CH
-1.57166	IY D
-1.770672	IY DD
-1.533616	IY DH
-1.710689	IY DX
-2.177405	IY EH
-3.36222	IY ER
-2.56258	IY EY
-1.561981	IY F
-1.858844	IY G
-3.100699	IY GD
-1.161655	IY HH
-1.670102	IY IH
-1.694564	IY IX
-2.711111	IY IY
-2.57166	IY JH
-1.337627	IY K
-2.229793	IY KD
-1.502012	IY L
-1.434136	IY M
-1.300375	IY N
-2.45913	IY OW
-4.246827	IY OY
-1.492224	IY P
-1.966552	IY PD
-1.716627	IY R
-1.196318	IY S
-1.985167	IY SH
-1.329672	IY T
-1.828525	IY TD
-1.892078	IY TH
-2.904404	IY TS
-1.46603	IY V
-1.201373	IY W
-2.140749	IY Y
-1.343014	IY Z
-1.657104	JH </s>
-1.901519	JH AA
-1.082707	JH AE
-0.9912503	JH AH
-2.533542	JH AO
-3.253701	JH AW
-0.8784952	JH AX
-1.26693	JH AXR
-1.200623	JH AY
-1.9807	JH B
-3.010663	JH CH
-2.3644	JH D
-1.222293	JH DD
-1.882634	JH DH
-1.297053	JH EH
-1.620233	JH ER
-2.952671	JH EY
-2.056421	JH F
-2.952671	JH G
-1.673918	JH HH
-1.347906	JH IH
-1.367211	JH IX
-1.233547	JH IY
-3.07761	JH JH
-2.275978	JH K
-2.324282	JH L
-1.911279	JH M
-2.311693	JH N
-2.577008	JH OW
-1.109906	JH OY
-2.232512	JH P
-2.814369	JH R
-2.07761	JH S
-2.554731	JH SH
-1.864535	JH T
-3.07761	JH TH
-3.010663	JH UH
-1.67107	JH UW
-3.554731	JH V
-1.941948	JH W
-2.337247	JH Y
-3.37864	JH Z
-3.481213	K </s>
-1.335396	K AA
-1.013161	K AE
-1.067578	K AH
-1.407495	K AO
-1.885717	K AW
-0.9125423	K AX
-2.377409	K AXR
-2.088516	K AY
-3.703062	K B
-2.636115	K CH
-4.180183	K D
-3.36727	K DH
-1.827037	K EH
-2.184548	K ER
-1.196557	K EY
-2.717785	K F
-3.138791	K HH
-1.077407	K IH
-1.532311	K IX
-1.907182	K IY
-3.782243	K K
-1.349595	K L
-3.250764	K M
-2.428135	K N
-1.909504	K OW
-3.402032	K OY
-3.578123	K P
-1.282281	K R
-1.006414	K S
-1.889037	K SH
-2.583586	K T
-1.344493	K UH
-2.556934	K UW
-4.180183	K V
-1.162107	K W
-1.668969	K Y
-1.370158	KD </s>
-2.184114	KD AA
-1.217973	KD AE
-1.332283	KD AH
-1.956871	KD AO
-2.337082	KD AW
-1.315433	KD AX
-3.291324	KD AXR
-2.045812	KD AY
-1.783469	KD B
-2.911113	KD CH
-2.139036	KD D
-1.175381	KD DH
-2.291324	KD EH
-3.513173	KD ER
-3.689265	KD EY
-1.602905	KD F
-2.242106	KD G
-1.145196	KD HH
-1.46785	KD IH
-2.527896	KD IX
-3.087204	KD IY
-2.668075	KD JH
-1.611897	KD K
-1.964989	KD L
-1.563783	KD M
-2.017167	KD N
-2.876351	KD OW
-1.911113	KD P
-2.151445	KD R
-1.558931	KD S
-2.197903	KD SH
-0.9838284	KD T
-0.7076724	KD TD
-1.611897	KD TH
-1.960911	KD TS
-2.814203	KD V
-1.4352	KD W
-1.583754	KD Y
-3.689265	KD Z
-1.896013	L </s>
-1.792669	L AA
-1.22768	L AE
-1.510385	L AH
-1.495371	L AO
-2.228186	L AW
-1.2978	L AX
-2.100723	L AXR
-1.231108	L AY
-1.812143	L B
-2.978151	L CH
-1.621091	L D
-1.234435	L DD
-1.551559	L DH
-1.348173	L EH
-2.386904	L ER
-1.311694	L EY
-1.368154	L F
-2.229454	L G
-1.669359	L HH
-1.342041	L IH
-1.732476	L IX
-0.9247572	L IY
-2.930971	L JH
-1.925261	L K
-3.039205	L KD
-2.307114	L L
-1.788508	L M
-1.95866	L N
-1.609666	L OW
-2.943937	L OY
-2.039205	L P
-2.475679	L PD
-2.089538	L R
-1.614261	L S
-2.399868	L SH
-1.477024	L T
-2.132037	L TD
-2.413232	L TH
-3.587389	L TS
-1.904943	L UH
-1.96969	L UW
-1.936111	L V
-1.823961	L W
-1.993365	L Y
-1.651882	L Z
-1.654952	M </s>
-1.764381	M AA
-1.094862	M AE
-1.08974	M AH
-1.427959	M AO
-1.888637	M AW
-1.113679	M AX
-2.296577	M AXR
-1.035816	M AY
-1.477668	M B
-3.124575	M CH
-2.271173	M D
-1.818295	M DD
-1.529615	M DH
-1.415855	M EH
-2.004357	M ER
-1.284367	M EY
-1.906735	M F
-2.599355	M G
-1.594825	M HH
-1.402297	M IH
-1.916075	M IX
-1.093549	M IY
-3.161298	M JH
-2.22002	M K
-2.264642	M L
-2.078935	M M
-2.239458	M N
-1.638547	M OW
-4.090716	M OY
-1.502165	M P
-2.101712	M PD
-2.182231	M R
-1.481389	M S
-2.432705	M SH
-1.4698	M T
-4.215655	M TD
-2.211334	M TH
-3.692776	M UH
-2.350354	M UW
-2.592406	M V
-1.856452	M W
-2.04053	M Y
-1.843972	M Z
-1.765026	N </s>
-1.398405	N AA
-1.608948	N AE
-1.505666	N AH
-2.165864	N AO
-2.123257	N AW
-1.465037	N AX
-2.151005	N AXR
-1.864833	N AY
-1.973231	N B
-2.358849	N CH
-1.311074	N D
-0.6825082	N DD
-1.276356	N DH
-1.796146	N EH
-2.50643	N ER
-2.228951	N EY
-1.872754	N F
-2.305185	N G
-1.392878	N HH
-1.76043	N IH
-1.807714	N IX
-1.597646	N IY
-2.049734	N JH
-1.932653	N K
-1.839978	N L
-1.970998	N M
-2.443688	N N
-1.625884	N OW
-2.945762	N OY
-2.21767	N P
-2.302788	N R
-1.062513	N S
-2.141007	N SH
-1.196325	N T
-1.360666	N TD
-2.52067	N TH
-2.098668	N TS
-2.195951	N UW
-2.346337	N V
-1.839703	N W
-2.042235	N Y
-1.718	N Z
-5.039184	N ZH
-1.530594	NG </s>
-1.805035	NG AA
-1.249009	NG AE
-1.37782	NG AH
-1.983629	NG AO
-2.346614	NG AW
-1.455262	NG AX
-2.744554	NG AXR
-2.13177	NG AY
-1.385351	NG B
-2.759277	NG CH
-1.654649	NG D
-2.32958	NG DD
-1.078036	NG DH
-2.036983	NG EH
-3.180282	NG ER
-2.841464	NG EY
-1.601539	NG F
-1.326805	NG G
-1.036133	NG HH
-1.407427	NG IH
-1.927209	NG IX
-2.703161	NG IY
-2.653473	NG JH
-1.315879	NG K
-1.236698	NG KD
-1.641891	NG L
-1.467327	NG M
-2.001567	NG N
-2.302597	NG OW
-1.800071	NG P
-2.069387	NG R
-1.380316	NG S
-2.157217	NG SH
-1.17792	NG T
-2.318585	NG TH
-2.4658	NG V
-1.464279	NG W
-1.895339	NG Y
-1.416174	NG Z
-1.866836	OW </s>
-2.491805	OW AA
-1.684496	OW AE
-2.044647	OW AH
-2.701755	OW AO
-2.872016	OW AW
-2.005139	OW AX
-2.968926	OW AXR
-2.296829	OW AY
-1.550625	OW B
-2.764806	OW BD
-2.007505	OW CH
-1.927534	OW D
-1.604375	OW DD
-1.393739	OW DH
-2.03696	OW DX
-2.412624	OW EH
-3.269956	OW ER
-3.491805	OW EY
-1.723414	OW F
-1.929512	OW G
-3.667896	OW GD
-1.39086	OW HH
-1.870283	OW IH
-1.587811	OW IX
-2.822798	OW IY
-2.470616	OW JH
-1.645674	OW K
-1.713654	OW KD
-0.8092088	OW L
-1.182885	OW M
-0.950642	OW N
-2.725888	OW OW
-3.968926	OW OY
-1.469239	OW P
-2.017103	OW PD
-1.941577	OW R
-1.159367	OW S
-1.906344	OW SH
-1.860023	OW T
-1.906344	OW TD
-1.798665	OW TH
-2.822798	OW TS
-1.432368	OW V
-1.775802	OW W
-1.935503	OW Y
-1.202886	OW Z
-3.968926	OW ZH
-1.562689	OY </s>
-2.613842	OY AA
-1.582433	OY AE
-2.011782	OY AH
-2.370804	OY AO
-0.8875222	OY AX
-2.73878	OY AXR
-2.613842	OY AY
-1.893682	OY B
-2.437751	OY D
-1.009076	OY DD
-1.516932	OY DH
-1.671834	OY DX
-2.914872	OY EH
-1.613842	OY F
-2.914872	OY G
-1.697388	OY HH
-2.136721	OY IH
-2.136721	OY IX
-2.914872	OY JH
-2.215902	OY K
-1.105312	OY L
-2.039811	OY M
-0.828512	OY N
-3.215902	OY OW
-2.914872	OY P
-2.914872	OY R
-0.8009285	OY S
-2.613842	OY SH
-1.768744	OY T
-2.101959	OY TS
-2.312812	OY W
-2.613842	OY Y
-0.9630488	OY Z
-3.406216	P </s>
-1.031102	P AA
-1.281712	P AE
-1.831029	P AH
-1.749161	P AO
-1.994597	P AW
-1.104102	P AX
-1.168673	P AXR
-2.083997	P AY
-4.105186	P B
-2.782967	P CH
-4.105186	P DH
-1.321283	P EH
-1.487662	P ER
-1.707246	P EY
-4.105186	P F
-3.503126	P HH
-1.448131	P IH
-2.120659	P IX
-1.247553	P IY
-3.804157	P K
-0.9779196	P L
-2.586673	P M
-3.202096	P N
-1.666644	P OW
-2.150944	P OY
-0.6044013	P R
-1.672217	P S
-2.762764	P SH
-2.628065	P T
-1.418104	P UH
-3.105186	P UW
-3.628065	P W
-2.492403	P Y
-1.169179	PD </s>
-2.146903	PD AA
-1.019596	PD AE
-1.375591	PD AH
-2.072269	PD AO
-2.447933	PD AW
-1.548249	PD AX
-2.953083	PD AXR
-2.160691	PD AY
-1.572872	PD B
-3.351023	PD CH
-2.189655	PD D
-1.121853	PD DH
-2.69781	PD EH
-3.351023	PD ER
-1.693011	PD F
-2.53811	PD G
-1.238753	PD HH
-1.245513	PD IH
-2.475962	PD IX
-2.748963	PD IY
-2.953083	PD JH
-1.873902	PD K
-2.160691	PD L
-1.78873	PD M
-2.39678	PD N
-2.806955	PD OW
-3.652053	PD OY
-2.220689	PD P
-2.189655	PD R
-1.562148	PD S
-2.421604	PD SH
-0.8378053	PD T
-0.7544258	PD TD
-2.204895	PD TH
-2.806955	PD TS
-2.953083	PD V
-1.384881	PD W
-1.759958	PD Y
-2.052003	R </s>
-1.719259	R AA
-1.341205	R AE
-1.491336	R AH
-1.813374	R AO
-1.995843	R AW
-1.182436	R AX
-2.580277	R AXR
-1.429067	R AY
-1.963062	R B
-3.980691	R BD
-2.108119	R CH
-1.759091	R D
-1.703902	R DD
-1.492342	R DH
-1.756862	R DX
-1.27863	R EH
-3.825789	R ER
-1.349538	R EY
-1.773096	R F
-2.389627	R G
-1.502537	R HH
-1.103485	R IH
-1.279494	R IX
-0.9676133	R IY
-2.041172	R JH
-1.90151	R K
-2.433093	R KD
-2.034099	R L
-1.502331	R M
-1.821038	R N
-1.586991	R OW
-2.643946	R OY
-1.975143	R P
-3.153692	R PD
-2.296873	R R
-1.539333	R S
-2.243726	R SH
-1.840812	R T
-1.786375	R TD
-2.351573	R TH
-2.587743	R TS
-3.334428	R UH
-1.542262	R UW
-2.655528	R V
-1.785583	R W
-2.076827	R Y
-1.864368	R Z
-1.708325	S </s>
-1.924614	S AA
-1.512087	S AE
-1.133528	S AH
-1.788316	S AO
-2.692154	S AW
-1.232242	S AX
-1.822922	S AXR
-1.671678	S AY
-2.019737	S B
-2.48061	S CH
-2.380765	S D
-1.857448	S DH
-0.9613715	S EH
-1.88832	S ER
-1.670822	S EY
-1.899279	S F
-2.523108	S G
-1.657899	S HH
-1.363001	S IH
-2.001042	S IX
-1.306116	S IY
-2.789064	S JH
-1.60164	S K
-2.090843	S KD
-1.692453	S L
-1.827397	S M
-2.131711	S N
-1.387842	S OW
-3.853522	S OY
-1.410415	S P
-3.677431	S PD
-2.373515	S R
-1.95976	S S
-2.482454	S SH
-0.9363315	S T
-0.9941432	S TD
-3.047342	S TH
-2.707394	S TS
-3.707394	S UH
-1.8492	S UW
-2.89448	S V
-1.704919	S W
-2.38223	S Y
-4.07537	S Z
-2.500626	SH </s>
-1.825137	SH AA
-1.291535	SH AE
-1.650658	SH AH
-1.63793	SH AO
-2.524107	SH AW
-0.6113247	SH AX
-3.001229	SH AXR
-2.457161	SH AY
-3.001229	SH B
-3.47835	SH CH
-3.47835	SH D
-2.399169	SH DH
-1.959836	SH EH
-2.737987	SH ER
-1.868222	SH EY
-2.68247	SH F
-3.17732	SH G
-2.390214	SH HH
-1.606194	SH IH
-1.827557	SH IX
-0.4438218	SH IY
-3.38144	SH JH
-3.126168	SH K
-2.47835	SH L
-1.937395	SH M
-3.039017	SH N
-1.452021	SH OW
-3.039017	SH P
-2.399169	SH R
-2.801656	SH S
-3.235312	SH SH
-2.399169	SH T
-1.389328	SH TD
-1.122324	SH UH
-2.107282	SH UW
-2.561896	SH W
-2.87629	SH Y
-3.77938	SH Z
-3.057552	T </s>
-1.804093	T AA
-1.827103	T AE
-1.793325	T AH
-1.716118	T AO
-2.401933	T AW
-0.3879097	T AX
-1.221703	T AXR
-1.445033	T AY
-3.016159	T B
-3.659612	T D
-2.681888	T DH
-1.291325	T EH
-1.584796	T ER
-1.344902	T EY
-2.419063	T F
-3.756522	T G
-2.691129	T HH
-1.460955	T IH
-1.763086	T IX
-1.600806	T IY
-4.358582	T JH
-3.337393	T K
-3.016159	T L
-2.076413	T M
-2.622185	T N
-1.77937	T OW
-3.580431	T OY
-3.297884	T P
-1.065883	T R
-2.242971	T S
-4.057552	T SH
-3.079829	T T
-3.580431	T TH
-1.6851	T UH
-1.219018	T UW
-4.358582	T V
-1.987514	T W
-3.115544	T Y
-1.411822	TD </s>
-1.953911	TD AA
-1.215736	TD AE
-1.324539	TD AH
-1.936095	TD AO
-2.123504	TD AW
-1.427771	TD AX
-3.086433	TD AXR
-1.645309	TD AY
-1.438295	TD B
-2.97401	TD CH
-1.614941	TD D
-0.9834068	TD DH
-2.134389	TD EH
-3.267487	TD ER
-2.997492	TD EY
-1.49209	TD F
-2.061499	TD G
-0.9489922	TD HH
-1.244164	TD IH
-2.081525	TD IX
-2.612614	TD IY
-2.383532	TD JH
-1.600518	TD K
-1.309765	TD L
-1.468385	TD M
-1.735128	TD N
-2.282727	TD OW
-4.127825	TD OY
-1.760936	TD P
-1.830065	TD R
-1.405397	TD S
-1.758146	TD SH
-1.265247	TD T
-2.279636	TD TH
-2.474613	TD V
-1.223786	TD W
-1.743114	TD Y
-3.884787	TD Z
-1.492779	TH </s>
-2.672714	TH AA
-1.24135	TH AE
-1.427201	TH AH
-1.099068	TH AO
-0.9831086	TH AW
-1.696516	TH AX
-2.085377	TH AXR
-2.056413	TH AY
-2.009956	TH B
-3.246745	TH CH
-2.269021	TH D
-1.738215	TH DH
-2.593532	TH EH
-1.65568	TH ER
-3.547775	TH EY
-1.762445	TH F
-3.003707	TH G
-1.652905	TH HH
-0.7338603	TH IH
-1.050845	TH IX
-2.343655	TH IY
-3.246745	TH JH
-2.317326	TH K
-2.468593	TH L
-2.176707	TH M
-2.417441	TH N
-2.593532	TH OW
-2.450865	TH P
-0.7707105	TH R
-1.447404	TH S
-2.386407	TH SH
-1.899415	TH T
-3.848805	TH TH
-2.526585	TH V
-1.880322	TH W
-2.401647	TH Y
-1.187099	TS </s>
-1.746407	TS AA
-0.9252213	TS AE
-0.9078204	TS AH
-2.197199	TS AO
-2.950527	TS AW
-1.614735	TS AX
-3.126618	TS AXR
-1.703372	TS AY
-1.432013	TS B
-2.473406	TS CH
-1.936287	TS D
-1.344863	TS DH
-1.398265	TS EH
-3.126618	TS ER
-3.126618	TS EY
-1.614735	TS F
-2.126618	TS G
-1.024528	TS HH
-1.546835	TS IH
-2.427648	TS IX
-2.825588	TS IY
-2.58255	TS JH
-1.564325	TS K
-1.746407	TS L
-1.642318	TS M
-1.909134	TS N
-1.96525	TS OW
-1.695255	TS P
-1.703372	TS R
-1.445377	TS S
-1.922498	TS SH
-1.260331	TS T
-2.348467	TS TH
-2.386256	TS V
-1.248671	TS W
-2.065921	TS Y
-2.862926	UH CH
-1.735281	UH D
-0.3091441	UH DD
-2.329324	UH DX
-3.942107	UH F
-2.711658	UH G
-1.512355	UH K
-0.8156512	UH KD
-1.325107	UH L
-1.472285	UH M
-2.942107	UH P
-0.8863468	UH R
-2.737987	UH S
-1.973624	UH SH
-2.663354	UH T
-1.168321	UH TD
-3.039017	UH TS
-2.795979	UH Z
-1.610669	UW </s>
-1.734982	UW AA
-1.605994	UW AE
-1.948975	UW AH
-1.99201	UW AO
-2.603214	UW AW
-1.376586	UW AX
-3.129183	UW AXR
-1.928958	UW AY
-1.58957	UW B
-2.612554	UW BD
-2.59407	UW CH
-1.636822	UW D
-1.730004	UW DD
-1.145944	UW DH
-1.39794	UW DX
-2.161368	UW EH
-3.673251	UW ER
-2.673251	UW EY
-1.696672	UW F
-2.076654	UW G
-1.112747	UW HH
-1.649999	UW IH
-2.082187	UW IX
-2.8951	UW IY
-2.28854	UW JH
-1.636822	UW K
-3.071191	UW KD
-1.566041	UW L
-1.093468	UW M
-1.035511	UW N
-2.59407	UW OW
-1.79819	UW P
-2.489981	UW PD
-2.063124	UW R
-1.23038	UW S
-1.770161	UW SH
-1.607858	UW T
-1.832832	UW TD
-1.889705	UW TH
-2.366826	UW TS
-1.882614	UW V
-1.25495	UW W
-1.879112	UW Y
-1.387694	UW Z
-2.210853	UW ZH
-2.171196	V </s>
-2.156543	V AA
-1.526101	V AE
-1.689837	V AH
-1.920919	V AO
-2.541306	V AW
-1.142569	V AX
-0.9779893	V AXR
-1.789744	V AY
-1.681485	V B
-2.420128	V CH
-1.893115	V D
-1.348246	V DD
-0.8214802	V DH
-1.237788	V EH
-1.914978	V ER
-2.075992	V EY
-1.955781	V F
-1.79419	V G
-1.164646	V HH
-1.444197	V IH
-1.51988	V IX
-2.15449	V IY
-2.363554	V JH
-1.758192	V K
-1.94175	V L
-1.396607	V M
-1.82091	V N
-2.298982	V OW
-2.013958	V OY
-1.776675	V P
-1.658658	V R
-1.582101	V S
-2.641977	V SH
-1.856544	V T
-2.494054	V TH
-3.480826	V UW
-2.868042	V V
-1.938	V W
-1.656049	V Y
-1.629568	V Z
-0.8010739	W AA
-2.748234	W AE
-1.003481	W AH
-1.527664	W AO
-3.200531	W AW
-1.322345	W AX
-1.348255	W AXR
-1.268777	W AY
-4.580742	W DH
-0.8485901	W EH
-1.536987	W ER
-1.328861	W EY
-0.6709726	W IH
-1.667989	W IX
-1.236743	W IY
-2.413425	W OW
-4.279713	W OY
-1.312867	W UH
-3.103621	W UW
-2.233705	Y AA
-2.810941	Y AE
-1.317251	Y AH
-0.829425	Y AO
-3.288063	Y AW
-1.393193	Y AX
-1.675279	Y AXR
-1.442965	Y EH
-3.163124	Y ER
-4.066214	Y EY
-1.687816	Y IH
-2.63485	Y IY
-2.890123	Y OW
-1.381369	Y UH
-0.2003406	Y UW
-1.392612	Z </s>
-1.851941	Z AA
-1.141748	Z AE
-1.294965	Z AH
-1.957849	Z AO
-2.735034	Z AW
-1.170605	Z AX
-2.359676	Z AXR
-1.518077	Z AY
-1.396047	Z B
-2.545638	Z CH
-1.672077	Z D
-1.597258	Z DD
-1.247048	Z DH
-1.71137	Z EH
-2.098212	Z ER
-2.861908	Z EY
-1.434004	Z F
-1.872903	Z G
-1.14397	Z HH
-1.428252	Z IH
-1.785319	Z IX
-2.124374	Z IY
-2.313431	Z JH
-1.4915	Z K
-1.754576	Z L
-1.432271	Z M
-1.492162	Z N
-1.991002	Z OW
-4.610096	Z OY
-1.660706	Z P
-1.76624	Z R
-1.275843	Z S
-1.862684	Z SH
-1.374315	Z T
-2.296228	Z TH
-3.008036	Z UW
-2.146203	Z V
-1.387119	Z W
-1.921676	Z Y
-3.831944	Z Z
-0.208533	ZH AX
-0.4275625	ZH AXR
-2.658011	ZH K
-2.959041	ZH M

\end\
